{
  "version": "3.0.0",
  "type": "neural_network",
  "trainedAt": "2026-03-01T01:52:52.247Z",
  "trainingExamples": 563,
  "rawLabelCount": 572,
  "sourceCounts": {
    "snapshot": 0,
    "liveFallback": 563,
    "failed": 0
  },
  "architecture": {
    "inputSize": 32,
    "hiddenSize": 16,
    "activation": "relu",
    "output": "sigmoid"
  },
  "normalization": {
    "features": [
      "accountAgeDays",
      "badgeClusterCount",
      "badgeCount",
      "badgeGapMedianHours",
      "badgeGapStdHours",
      "badgePerYear",
      "developmentItemCount",
      "developmentItemRatio",
      "followerCount",
      "followerToFollowingRatio",
      "followingCount",
      "friendCount",
      "gamePassCount",
      "gamePassTotalSpent",
      "groupBaseRankCount",
      "groupBaseRankRatio",
      "groupCount",
      "inv_Accessory",
      "inv_Face",
      "inv_Gear",
      "inv_Hair",
      "inv_Hat",
      "inv_Pants",
      "inv_Shirt",
      "inventoryDistinctTypes",
      "pricedGamePassCount",
      "rankedGroupCount",
      "selfCreatedPricedGamePassCount",
      "socialConnectionTotal",
      "suspiciousBadgeCount",
      "suspiciousBadgeRatio",
      "totalItems"
    ],
    "mean": [
      2170.5222024866785,
      15.282415630550622,
      1660.2113676731794,
      1.2602353463587925,
      274.81825709674956,
      301.87421125514265,
      79.07104795737122,
      0.06432750011531707,
      3547.577264653641,
      2.7877592763327854,
      568.4316163410302,
      121.23623445825932,
      104.95026642984014,
      18816806.195381884,
      34.36234458259325,
      0.5880455057088413,
      45.04795737122558,
      0,
      13.47602131438721,
      5.63765541740675,
      0,
      58.47424511545293,
      48.646536412078156,
      66.41030195381883,
      35.19715808170515,
      104.95026642984014,
      10.685612788632326,
      9.181172291296626,
      4237.245115452931,
      4.087033747779751,
      0.0026695512162120284,
      556.8046181172291
    ],
    "std": [
      938.8706761250519,
      17.775394408703793,
      1510.2170958045979,
      10.806882501322438,
      516.4018244260473,
      276.6588724982502,
      490.34105135056427,
      0.10961759153733347,
      60085.55737349421,
      3.6215238477891853,
      12500.30551258031,
      108.66635086180891,
      147.451522017915,
      152417438.54342815,
      32.048034599313205,
      0.36207697175823994,
      39.75246912248205,
      1,
      18.360627922396773,
      51.72114192164347,
      1,
      151.89796505496835,
      87.94462431702624,
      125.62053590593487,
      7.755261258078236,
      147.451522017915,
      13.881338883806675,
      21.61480646828132,
      72260.85770788227,
      3.5288044222832866,
      0.0028097465804796692,
      901.9693182093869
    ]
  },
  "network": {
    "inputHiddenWeights": [
      [
        -0.012765019432400907,
        -0.11727961057671586,
        -0.2562394174878969,
        -0.009719051777605917,
        -0.07246910050439467,
        0.08175100208079458,
        0.03620423009551935,
        0.11952169351068793,
        -0.06705593744072,
        -0.0321792793206616,
        -0.10940006999007579,
        0.08573811249827287,
        -0.014333681257217925,
        -0.1345779138572694,
        0.15986525691682352,
        0.006771260925260994,
        0.12663268332889968,
        0.062147126032790975,
        -0.13808993376658713,
        0.01314380859929829,
        -0.31113417520541686,
        0.011488659445099681,
        -0.2479084027401842,
        0.330710943010915,
        0.2769252078046763,
        -0.13815217644181102,
        -0.18954752171409486,
        -0.16318549653307432,
        -0.006342782503870154,
        0.3031622406105843,
        -0.046475681613837645,
        -0.10209172444784008
      ],
      [
        -0.04665206439857855,
        -0.2572395190213157,
        0.38016559018358176,
        -0.2150904628822601,
        -0.4292851681065969,
        0.06382896629342368,
        -0.016922897650550026,
        -0.014965656420459203,
        0.13562171988250488,
        0.3804188611724581,
        -0.0035429540753118575,
        0.3691469140462176,
        0.24167924048488704,
        -0.10408981553060512,
        0.060762692892612935,
        0.24705674286710905,
        -0.1268739857657084,
        0.16838936814353636,
        -0.2361545099778113,
        -0.02515979529978954,
        0.29690153753667214,
        -0.15485575114957997,
        0.24570063847232373,
        -0.17383606551667702,
        0.261455805162867,
        -0.3158649366312052,
        -0.1918742887268793,
        0.2847684952091281,
        0.002631869436809808,
        -0.13804556955647393,
        0.0669368410022623,
        -0.19299373192346705
      ],
      [
        -0.2021143354436085,
        -0.13361338856690866,
        0.27880686886785544,
        0.3059015006151759,
        0.16001201967137796,
        -0.1096410037760752,
        0.2336387908727102,
        0.30147308138645235,
        0.16864012200874523,
        0.23813026654753955,
        0.11786070633849952,
        -0.04919089739740566,
        0.23246089649403198,
        0.17367822559794874,
        -0.1488135287356882,
        0.11907840693152956,
        0.0054695619056102625,
        -0.2440937667887286,
        -0.3361237464228139,
        0.2859612123813945,
        0.018188709290977982,
        -0.14076343546806494,
        -0.09805638667456494,
        -0.22259767888157364,
        0.13662052313520098,
        -0.315103864445415,
        -0.1594913659480981,
        0.19458648196966488,
        -0.030047965407511142,
        0.16525218205839667,
        -0.09055845402297732,
        -0.33105013263456196
      ],
      [
        -0.09009233718657068,
        -0.3127923242152372,
        0.19396880979022602,
        0.20542862969292036,
        -0.2615731985058844,
        -0.14064999729936295,
        0.03353835848276265,
        0.09435674760012903,
        0.12418497621407129,
        0.23387705417412194,
        -0.24603763339857268,
        0.11391001539856473,
        -0.1797414049505149,
        -0.26271408123851053,
        0.019558430942683686,
        0.3367379265734951,
        0.35659362714021237,
        -0.2612843708830201,
        -0.3029362958323256,
        -0.22603372548226144,
        -0.022670546283513095,
        -0.1906794374364739,
        0.33838859030114543,
        0.08924568111626649,
        0.3067772814535744,
        0.10681735959794868,
        0.10640669729205107,
        -0.2609203780225651,
        -0.06952745833145323,
        0.09000706328343369,
        0.03634286757519585,
        -0.12659479864490877
      ],
      [
        -0.2098210972635415,
        -0.2690992135496351,
        0.34932265156860914,
        -0.0299435200994036,
        -0.09326020464403688,
        0.32866994039928255,
        0.050455666219549784,
        -0.1801591192354006,
        0.07140235674093798,
        0.1931643114753788,
        0.19358980862520328,
        0.302071656988648,
        -0.28992771777349186,
        0.17414789710630912,
        -0.10715548027198357,
        0.16150940447198892,
        0.02345451739714058,
        -0.0988382297827285,
        -0.027404660621047072,
        0.3325689716098884,
        -0.04823810643141208,
        -0.24528089950511248,
        0.09583250906156032,
        -0.29317370980275786,
        -0.24387923640180634,
        -0.23271407517805048,
        -0.26682580094519204,
        0.3211724342789261,
        -0.18840467715353498,
        0.22049739558422687,
        0.0911937816386939,
        0.11269696999951262
      ],
      [
        0.09365741919869286,
        -0.29974906412794666,
        0.059663832240245955,
        0.24180252312057923,
        0.21534214303623272,
        0.17607621831899614,
        0.25889846070876754,
        0.3133069203377685,
        -0.18335138895070274,
        0.14295249997368456,
        0.3202742313976295,
        0.2188780499197672,
        0.2960772128976109,
        -0.04078835813691905,
        -0.020766015296519863,
        -0.2230941673389974,
        -0.3807138876051624,
        0.2476128529345335,
        -0.34951361893614824,
        -0.27919523785958034,
        0.288248132935496,
        0.038502865279055165,
        -0.0964317791257863,
        -0.21288985781816444,
        0.11451970409495595,
        -0.1330924675360785,
        -0.25374900653131055,
        -0.09968958495532798,
        -0.0935804926942879,
        0.10531063515378271,
        0.08176388010242831,
        0.0510854501635844
      ],
      [
        0.34338193997655614,
        -0.32655916202860324,
        -0.12139318537449167,
        -0.14234554441666603,
        -0.13038951153105463,
        0.24751049196126665,
        -0.2849723826270865,
        -0.04934995580580431,
        0.22129264736923063,
        0.10885372449835079,
        -0.10725582506296795,
        0.2877136015319442,
        -0.08140282528226406,
        -0.12498253097624815,
        0.047718068797624594,
        -0.05245261752508225,
        -0.2399710071014692,
        -0.022223654747364957,
        0.13165779060043298,
        -0.31352886066343477,
        0.23997027394301873,
        0.2663038328474444,
        -0.13506455331311254,
        -0.3685054087428536,
        0.28476727044498745,
        0.055558378163739534,
        -0.11599117313028275,
        -0.10631160395015235,
        -0.34262852353400286,
        0.24897075358773127,
        -0.06828981274790827,
        0.19503181036730366
      ],
      [
        -0.5196053746418916,
        0.0828649604064834,
        -0.19454338458838027,
        0.20193999359762765,
        0.08637631614893009,
        -0.38975113612702017,
        -0.2708925659283693,
        0.3146174955974211,
        -0.07905063849979276,
        0.1531417375959822,
        0.17668947798920992,
        -0.08897189831259722,
        -0.4256233330176487,
        -0.21671194267250335,
        -0.01566498516275969,
        -0.0646917259352097,
        0.09073852745152892,
        0.010230476465890323,
        0.30282419246069614,
        -0.2084502942990356,
        -0.2740293440573476,
        0.22201299909622402,
        -0.1294887361192678,
        0.04994698543163111,
        0.2249966788723488,
        -0.10413490649991652,
        -0.002931285598905477,
        -0.2112069222749506,
        0.0877490377143356,
        0.20298466283715477,
        -0.14212086709992622,
        0.14062199714979745
      ],
      [
        -0.27968472610697376,
        0.11457083650202655,
        -0.16625676151459554,
        0.26741710129164165,
        0.25352702211625305,
        -0.5183745630689884,
        -0.204034341465593,
        -0.04618241563929843,
        -0.22201188593309099,
        -0.06205358147599737,
        -0.34583286017691056,
        -0.27847227686048276,
        -0.14939794291983188,
        -0.20871637962652717,
        0.21787481508371256,
        0.23504283341614715,
        -0.3832790083014819,
        0.29800809467220846,
        0.19300420618798772,
        0.07509537565681211,
        -0.09328176913845768,
        0.17705391806251328,
        -0.35290831502150344,
        -0.07639579777669123,
        -0.43989960950981427,
        -0.2089518800939141,
        -0.11030312089052588,
        0.07488503795911339,
        0.2841091488108757,
        0.3463256319826055,
        0.13238273512469162,
        0.12499482585875182
      ],
      [
        -0.20162153738059574,
        0.19355233554923737,
        -0.4882738146209838,
        0.0006949029773304324,
        0.4030676992241857,
        -0.37238977169956355,
        -0.01694994127450925,
        0.1786648501712271,
        -0.13551562244621757,
        0.1130590875666172,
        -0.029001230414040433,
        -0.20950248459499346,
        -0.031836103781177794,
        0.04962059152575838,
        -0.18536163362007227,
        -0.07886068890091257,
        0.18721874114580536,
        0.3407560879519524,
        0.2896365177444969,
        0.18617191269742117,
        -0.2728760423898412,
        -0.2635122925644487,
        -0.10788186233797467,
        0.008645858358120784,
        -0.16338962942078403,
        -0.3973843388772115,
        -0.13443162866968056,
        -0.08727155648357764,
        0.1206191525788953,
        0.10903999593863542,
        0.19543372581403776,
        -0.21680831879234916
      ],
      [
        -0.02242720827216825,
        0.10834698499023095,
        0.2316445249368579,
        -0.07695318972932867,
        -0.4191166724967933,
        0.16093635539927315,
        -0.21067594907630122,
        -0.2430656846598374,
        -0.2869063618524638,
        -0.06627639991644894,
        -0.14173230118699748,
        0.20094628331136574,
        0.20674375787237176,
        0.2754846381147281,
        -0.2248090911279208,
        -0.3068343186871998,
        -0.034597899923717756,
        0.23926288503737375,
        0.15904618459798114,
        -0.09825134409301428,
        -0.044977770377043515,
        -0.18988520613803184,
        -0.18589326568711723,
        0.20361280097329612,
        0.00884514888576364,
        0.35819006859699165,
        0.04256469080257098,
        0.06630443025414151,
        0.15106202792781584,
        0.13797308505610112,
        -0.032341097834616486,
        -0.10407261566376079
      ],
      [
        -0.20958624762398956,
        0.22404030125215263,
        -0.4431614199516471,
        0.4093893822922329,
        -0.4100293418884604,
        0.16041800778389437,
        -0.10321879073155434,
        -0.38428988002999714,
        0.1736740284058583,
        -0.019148399103224814,
        0.053351638239519196,
        0.013352758562769716,
        0.1338333154507512,
        0.12534937190111908,
        -0.21781266791801449,
        0.16400314063331672,
        -0.09604852968428083,
        -0.19186620463886583,
        -0.27669189474586015,
        0.10775173842770211,
        -0.11275598625085483,
        -0.17288658181456415,
        -0.06738626592788036,
        -0.3174904152754034,
        -0.3605996068345611,
        0.15338417267016927,
        -0.08349540106460439,
        -0.2399153794219833,
        0.05460100048378972,
        -0.2634807490628613,
        -0.2374548703697103,
        0.15933956028179408
      ],
      [
        -0.19032546709253362,
        0.06740159696052779,
        0.26841545670241856,
        -0.29721717786973706,
        0.19593231208773257,
        -0.05044564830190986,
        -0.008936389451659922,
        0.07151223556112286,
        -0.13849953036995594,
        0.24804433035271337,
        0.16494640560662235,
        -0.1871576287031496,
        0.12304735815423345,
        -0.23855614133913555,
        -0.2120826371741729,
        0.09669328257820112,
        -0.1778905756059254,
        -0.0964308789219956,
        -0.25208947208514976,
        -0.26265718493464724,
        -0.1848103134040433,
        -0.07586964534988463,
        0.006787865531135734,
        0.2599787072995049,
        -0.08813806585273032,
        0.34502257416418647,
        -0.1229016224587805,
        -0.048077978163440685,
        -0.2878073677865955,
        0.030019614383829846,
        0.15711948294012687,
        -0.12648203005092906
      ],
      [
        -0.03283863000687408,
        0.2902279873995346,
        -0.05238140454472822,
        -0.12315281768364778,
        -0.2933158738820797,
        0.022829232353851897,
        0.346840959284636,
        -0.2617096314346917,
        -0.08118438856909409,
        0.026878078807928436,
        -0.3373208582405716,
        0.22180056508969745,
        -0.02998110608331598,
        0.04774966036712192,
        -0.43331491268770383,
        0.2371145667225856,
        -0.07094556430908033,
        -0.04683742563791814,
        -0.08651684684409332,
        -0.06352944843116191,
        0.2119495776425081,
        0.059569228668243844,
        0.06960880994037467,
        -0.008059784148011102,
        -0.3391157490867759,
        -0.40667676557167326,
        0.1257677896355788,
        -0.08792516339997977,
        0.05004791186337896,
        -0.04336523615202977,
        0.2911807918089111,
        -0.2498830728210984
      ],
      [
        -0.07498978074281738,
        -0.15748595378961072,
        -0.0314729803117139,
        -0.1317138837955516,
        -0.17911440536291046,
        0.04809360540083686,
        0.19151251468897273,
        0.3841059381854815,
        0.3852544789296597,
        -0.03038350177329158,
        0.1473346407004503,
        0.2674151341285039,
        0.3980762169278197,
        -0.1188049792516982,
        -0.06137760476884926,
        0.33042194625945187,
        0.11765542054940065,
        -0.192352539841711,
        -0.1321688384758483,
        -0.21322740521211733,
        0.22669588647448888,
        0.14218587012899203,
        -0.21698741365155447,
        0.22363994420856884,
        -0.14897693543918153,
        -0.09876903799004014,
        0.25763211721815293,
        0.21976349755286925,
        -0.10498511796241453,
        0.14371281779136305,
        -0.29000269038494586,
        0.21231744290762414
      ],
      [
        0.3598609839988314,
        -0.4515060119108909,
        -0.17263290386747546,
        0.04875617705934059,
        -0.1507441335104714,
        -0.08728749716326589,
        -0.15389668790605687,
        -0.1542931299893268,
        0.18921580326958928,
        0.21454013495742988,
        -0.23610880491501957,
        0.09318248419723224,
        -0.09368792776181672,
        0.33273711990452476,
        0.09480543210102385,
        0.2474636342146321,
        0.3726333576875797,
        -0.2658380379652479,
        0.3002863934623041,
        0.06084719465045054,
        0.00735967494870732,
        -0.06160321166083527,
        0.06127123947385902,
        0.06589862348648089,
        0.23183130192120424,
        -0.07837013989303296,
        0.38994989613771774,
        0.2956139249603872,
        -0.30452973655706894,
        0.03596429272650629,
        -0.28584381093645045,
        -0.05451983267642921
      ]
    ],
    "hiddenBiases": [
      -0.13542419401763645,
      0.7409757343683453,
      -0.14219938038064053,
      0.2444656564428468,
      0.2252114983189784,
      0.16478018174189107,
      0.050717316863287724,
      -0.09737913011561464,
      -0.17264485680075115,
      -0.2190670632139965,
      0.14478119270294582,
      -0.24043717600467918,
      0.07659610559339201,
      -0.13041757138586235,
      0.509752267316323,
      0.2705380574597095
    ],
    "hiddenOutputWeights": [
      0.16591935270365568,
      -1.0818844916625574,
      0.23806957352533353,
      -0.5881971788536011,
      -0.41578670445193033,
      -0.5440194138586175,
      -0.2096076877323192,
      0.7056394129246273,
      0.9788041137401194,
      0.850611237899387,
      -0.4879877403081837,
      0.934284804948985,
      -0.3012584910208859,
      0.6145906084012016,
      -0.8486859155958436,
      -0.7716218854615892
    ],
    "outputBias": -0.9658185911355293
  },
  "stats": {
    "suspiciousExamples": 113,
    "legitimateExamples": 450,
    "averageVoteCount": 1.02,
    "meanFeaturesSuspicious": {
      "accountAgeDays": 1741.3805,
      "badgeCount": 343.2035,
      "suspiciousBadgeCount": 1.2124,
      "suspiciousBadgeRatio": 0.0027,
      "badgeClusterCount": 5.2124,
      "badgeGapMedianHours": 4.429,
      "badgeGapStdHours": 666.4409,
      "badgePerYear": 83.4368,
      "totalItems": 151.6726,
      "inventoryDistinctTypes": 25.6018,
      "developmentItemCount": 6.5221,
      "developmentItemRatio": 0.0228,
      "inv_Hat": 13.2655,
      "inv_Hair": 0,
      "inv_Face": 4.9204,
      "inv_Shirt": 13.7699,
      "inv_Pants": 10.4513,
      "inv_Accessory": 0,
      "inv_Gear": 0.5575,
      "gamePassCount": 9.4336,
      "pricedGamePassCount": 9.4336,
      "selfCreatedPricedGamePassCount": 1.1681,
      "gamePassTotalSpent": 2704.9381,
      "groupCount": 15.7611,
      "groupBaseRankCount": 13.0177,
      "groupBaseRankRatio": 0.583,
      "rankedGroupCount": 2.7434,
      "friendCount": 36.7434,
      "followerCount": 13.9735,
      "followingCount": 2.6018,
      "socialConnectionTotal": 53.3186,
      "followerToFollowingRatio": 0.9324
    },
    "meanFeaturesLegitimate": {
      "accountAgeDays": 2278.2844,
      "badgeCount": 1990.9267,
      "suspiciousBadgeCount": 4.8089,
      "suspiciousBadgeRatio": 0.0027,
      "badgeClusterCount": 17.8111,
      "badgeGapMedianHours": 0.4645,
      "badgeGapStdHours": 176.4775,
      "badgePerYear": 356.7263,
      "totalItems": 658.5378,
      "inventoryDistinctTypes": 37.6067,
      "developmentItemCount": 97.2889,
      "developmentItemRatio": 0.0748,
      "inv_Hat": 69.8267,
      "inv_Hair": 0,
      "inv_Face": 15.6244,
      "inv_Shirt": 79.6289,
      "inv_Pants": 58.2378,
      "inv_Accessory": 0,
      "inv_Gear": 6.9133,
      "gamePassCount": 128.9356,
      "pricedGamePassCount": 128.9356,
      "selfCreatedPricedGamePassCount": 11.1933,
      "gamePassTotalSpent": 23541236.0667,
      "groupCount": 52.4022,
      "groupBaseRankCount": 39.7222,
      "groupBaseRankRatio": 0.5893,
      "rankedGroupCount": 12.68,
      "friendCount": 142.4533,
      "followerCount": 4434.9044,
      "followingCount": 710.5178,
      "socialConnectionTotal": 5287.8756,
      "followerToFollowingRatio": 3.2537
    }
  },
  "evaluation": {
    "finalLoss": 0.1985714703181875,
    "meanAbsoluteError": 0.08,
    "bucketAccuracy": 0.8472
  },
  "featureInsights": {
    "accountAgeDays": {
      "suspiciousMean": 1741.3805,
      "legitimateMean": 2278.2844,
      "suspiciousDirection": "low"
    },
    "badgeClusterCount": {
      "suspiciousMean": 5.2124,
      "legitimateMean": 17.8111,
      "suspiciousDirection": "low"
    },
    "badgeCount": {
      "suspiciousMean": 343.2035,
      "legitimateMean": 1990.9267,
      "suspiciousDirection": "low"
    },
    "badgeGapMedianHours": {
      "suspiciousMean": 4.429,
      "legitimateMean": 0.4645,
      "suspiciousDirection": "high"
    },
    "badgeGapStdHours": {
      "suspiciousMean": 666.4409,
      "legitimateMean": 176.4775,
      "suspiciousDirection": "high"
    },
    "badgePerYear": {
      "suspiciousMean": 83.4368,
      "legitimateMean": 356.7263,
      "suspiciousDirection": "low"
    },
    "developmentItemCount": {
      "suspiciousMean": 6.5221,
      "legitimateMean": 97.2889,
      "suspiciousDirection": "low"
    },
    "developmentItemRatio": {
      "suspiciousMean": 0.0228,
      "legitimateMean": 0.0748,
      "suspiciousDirection": "low"
    },
    "followerCount": {
      "suspiciousMean": 13.9735,
      "legitimateMean": 4434.9044,
      "suspiciousDirection": "low"
    },
    "followerToFollowingRatio": {
      "suspiciousMean": 0.9324,
      "legitimateMean": 3.2537,
      "suspiciousDirection": "low"
    },
    "followingCount": {
      "suspiciousMean": 2.6018,
      "legitimateMean": 710.5178,
      "suspiciousDirection": "low"
    },
    "friendCount": {
      "suspiciousMean": 36.7434,
      "legitimateMean": 142.4533,
      "suspiciousDirection": "low"
    },
    "gamePassCount": {
      "suspiciousMean": 9.4336,
      "legitimateMean": 128.9356,
      "suspiciousDirection": "low"
    },
    "gamePassTotalSpent": {
      "suspiciousMean": 2704.9381,
      "legitimateMean": 23541236.0667,
      "suspiciousDirection": "low"
    },
    "groupBaseRankCount": {
      "suspiciousMean": 13.0177,
      "legitimateMean": 39.7222,
      "suspiciousDirection": "low"
    },
    "groupBaseRankRatio": {
      "suspiciousMean": 0.583,
      "legitimateMean": 0.5893,
      "suspiciousDirection": "low"
    },
    "groupCount": {
      "suspiciousMean": 15.7611,
      "legitimateMean": 52.4022,
      "suspiciousDirection": "low"
    },
    "inv_Accessory": {
      "suspiciousMean": 0,
      "legitimateMean": 0,
      "suspiciousDirection": "neutral"
    },
    "inv_Face": {
      "suspiciousMean": 4.9204,
      "legitimateMean": 15.6244,
      "suspiciousDirection": "low"
    },
    "inv_Gear": {
      "suspiciousMean": 0.5575,
      "legitimateMean": 6.9133,
      "suspiciousDirection": "low"
    },
    "inv_Hair": {
      "suspiciousMean": 0,
      "legitimateMean": 0,
      "suspiciousDirection": "neutral"
    },
    "inv_Hat": {
      "suspiciousMean": 13.2655,
      "legitimateMean": 69.8267,
      "suspiciousDirection": "low"
    },
    "inv_Pants": {
      "suspiciousMean": 10.4513,
      "legitimateMean": 58.2378,
      "suspiciousDirection": "low"
    },
    "inv_Shirt": {
      "suspiciousMean": 13.7699,
      "legitimateMean": 79.6289,
      "suspiciousDirection": "low"
    },
    "inventoryDistinctTypes": {
      "suspiciousMean": 25.6018,
      "legitimateMean": 37.6067,
      "suspiciousDirection": "low"
    },
    "pricedGamePassCount": {
      "suspiciousMean": 9.4336,
      "legitimateMean": 128.9356,
      "suspiciousDirection": "low"
    },
    "rankedGroupCount": {
      "suspiciousMean": 2.7434,
      "legitimateMean": 12.68,
      "suspiciousDirection": "low"
    },
    "selfCreatedPricedGamePassCount": {
      "suspiciousMean": 1.1681,
      "legitimateMean": 11.1933,
      "suspiciousDirection": "low"
    },
    "socialConnectionTotal": {
      "suspiciousMean": 53.3186,
      "legitimateMean": 5287.8756,
      "suspiciousDirection": "low"
    },
    "suspiciousBadgeCount": {
      "suspiciousMean": 1.2124,
      "legitimateMean": 4.8089,
      "suspiciousDirection": "low"
    },
    "suspiciousBadgeRatio": {
      "suspiciousMean": 0.0027,
      "legitimateMean": 0.0027,
      "suspiciousDirection": "neutral"
    },
    "totalItems": {
      "suspiciousMean": 151.6726,
      "legitimateMean": 658.5378,
      "suspiciousDirection": "low"
    }
  },
  "labelDistribution": {
    "REAL": 411,
    "LIKELY_REAL": 44,
    "LIKELY_ALT": 28,
    "ALT": 89
  }
}